[[-0.47581664 -0.11167649 -1.40456393 ...  0.45567207  0.43108898
   1.58866091]
 [ 1.53268868  0.39225979 -0.93234353 ... -0.73070629  0.24356227
   3.29643437]
 [ 0.77892001 -1.00737253 -0.16665131 ...  0.14869284  1.06452568
  -0.78013573]
 ...
 [ 0.8394609  -1.07266334  1.44334441 ... -1.86319418  1.54897961
   0.2987883 ]
 [ 1.30942122 -1.09096364  2.28691122 ...  1.99990815 -0.03565766
  -0.04074867]
 [-0.11497063 -2.41152658 -0.79152257 ...  0.83550926 -0.66306891
   1.07621522]]
[[ 1.72500962e-01 -5.16352456e-02 -1.54480615e+00 -9.60496429e-01
  -6.47190164e-01 -8.73711271e-01 -1.92362065e-01 -7.08664438e-01
  -1.98874021e+00  1.06902302e+00 -6.11994052e-01  6.05375672e-01
   3.94178875e-01  1.20494095e+00  4.47389245e-02 -1.00682290e+00
  -7.64734672e-01  1.07330665e+00  9.19247998e-01  1.28608567e-01
  -8.45581026e-02 -5.60044805e-01 -1.87946158e-01  7.77963019e-01
  -1.93353973e-01  2.36256695e-01 -2.39226077e-01  2.34441126e-01
   4.11188325e-01 -5.87766522e-01]
 [ 1.15996272e-01  7.09060036e-01 -9.49798281e-02 -3.80618386e-02
   1.84502539e-01 -1.15412545e+00  1.01349375e-02 -1.84570906e+00
  -3.79790248e-01 -8.69663196e-01 -1.66194875e+00  1.13556245e+00
  -8.15174044e-01 -9.37186163e-01 -1.75215088e-01  1.13161877e-01
   1.35810497e+00  7.01742113e-01 -4.80041685e-01 -1.36860230e+00
  -7.64069097e-02  3.11922463e-01 -9.42622531e-01  5.49120763e-01
   4.72805851e-01 -3.43933355e-01 -1.36591049e+00  4.06587868e-01
  -4.95933602e-01 -5.72262407e-01]
 [ 3.80587870e-02  2.23641039e-01  1.38437055e-01 -5.97626017e-01
  -4.36963367e-01 -2.95915838e-01 -3.30803685e-02  2.04984966e-01
  -3.27683900e-01  1.72138439e+00  3.42916079e-01 -1.82837339e+00
   9.48084029e-02 -6.65140745e-01  6.93421993e-01  2.78601633e-01
  -2.37237748e+00 -7.22954438e-01 -5.64076292e-01  1.18290054e+00
   1.27142235e-01 -1.78474424e+00 -2.01036768e-01 -7.91839202e-01
   8.30202002e-01  4.44968979e-01  2.62713363e-01  6.06150821e-02
  -2.28744509e-01  1.31583067e+00]
 [ 4.68555464e-01 -5.12485670e-01 -8.93667750e-01 -5.81748699e-01
   1.69142494e+00  1.07526409e+00  2.98850011e-01 -1.13489401e+00
  -2.52599601e-01  6.25113625e-01  1.49390810e+00  1.83268600e-01
   3.94625357e-01 -1.44546017e-01 -4.43416073e-01 -8.87571497e-01
   3.20425257e-01  4.22533597e-01 -1.37279583e+00  7.17781811e-02
  -1.18561541e+00  1.26058853e-01 -1.62639260e-01 -3.34185669e-01
  -4.88697361e-01 -9.26491637e-01  3.21915517e+00  3.76803961e-01
  -1.63640486e+00 -2.50676970e-01]
 [ 5.16312727e-01 -4.41036265e-02  6.04482694e-01 -3.37855456e-01
  -1.31043900e-01  3.81728026e-01  7.16685515e-01  7.64856450e-02
  -6.86380230e-01 -1.84893768e+00 -8.37112702e-01  3.32094568e-01
   9.68283509e-01  4.30703055e-01  3.89691003e-01 -5.68690444e-01
   2.51664439e-02  2.96706245e-01 -8.24432231e-01 -7.93037912e-01
  -8.59144435e-02 -1.99953437e+00 -4.77171675e-01 -2.04569439e-01
  -7.73277492e-01  1.07015802e+00 -5.98210524e-01 -8.82285065e-01
   8.29596646e-01  1.53817356e+00]
 [-7.75948459e-01 -3.18517495e-01  6.73725726e-01  1.58304089e-01
  -2.29160561e+00  9.33078306e-01 -1.96728140e+00  6.47963886e-01
   1.09482888e-01 -2.23397091e-01  1.72049157e-01  1.42334708e+00
   2.64814262e-01 -4.17280575e-01 -1.96815370e+00 -1.07063177e+00
   4.23491769e-01 -3.40896915e-01  1.92915131e+00  7.35805473e-01
   1.47820038e-01 -1.04825403e+00  1.45216304e+00 -2.41042381e-01
   1.10450609e+00  6.53558055e-01  1.12107528e+00 -1.60540649e+00
  -2.02562419e-01 -2.68250059e-01]
 [ 1.52325089e+00  4.36092056e-03 -5.76731370e-01  7.80800215e-01
  -2.31736919e+00  5.55415361e-01  7.99591137e-01  2.13306650e-01
   7.46228637e-01  1.55236985e+00 -7.79125318e-02 -1.74720718e+00
  -2.25720817e-01  8.76469058e-01 -9.42899309e-01  7.91861900e-01
  -1.68720301e+00 -7.27422349e-01  1.95020452e-01  1.99582612e+00
   5.12500964e-01 -6.67979343e-01 -2.64142258e-01  1.24879458e+00
   7.77904956e-01  7.88245880e-01 -4.75996878e-01 -5.98150509e-01
  -1.56860777e+00  1.28999701e-01]
 [ 6.32664426e-01  8.75972373e-01  1.28891927e-01  1.57002056e-01
  -9.37977158e-01 -1.32419534e+00  2.22761558e-01 -8.90487572e-01
  -3.66718000e-03  4.48743354e-01 -9.27445035e-01  8.75202623e-02
  -6.12903654e-01 -1.57986637e+00  1.38772977e+00 -1.42174065e+00
   6.03514831e-01 -7.96899820e-01 -1.00460629e+00  4.82724984e-02
  -1.08500157e+00 -1.34784100e-01 -1.07853102e+00 -2.60993199e-01
   3.08478783e-02 -1.23375983e+00 -1.18598731e-01  6.04647943e-01
   1.58066425e-02  1.22393733e+00]
 [-1.83378951e+00  1.38640753e-01 -1.29961717e+00  1.03838551e+00
  -1.00200953e+00 -7.36118354e-01  2.06534852e+00  7.92766202e-02
   2.86978289e-02  1.30187004e-02 -1.41080574e-01  1.36326474e+00
   1.98269125e+00  4.29172157e-01 -8.92139183e-01 -6.18850449e-01
   5.73976398e-01 -8.92965324e-01 -2.20019944e+00  2.90242292e-01
   1.75461457e+00  6.10957726e-02 -2.01417246e-01  6.22112118e-01
   1.00370236e+00  1.23902702e+00  1.35491036e-01 -3.29746579e-01
   7.12712761e-01  7.36327908e-01]
 [-7.47732358e-01 -2.20071494e+00 -1.37621558e-01  2.92901395e-01
   9.73737971e-01  1.78214266e+00  6.20270783e-02  8.54485841e-01
   5.27041924e-01 -1.99873448e+00  7.38251056e-02  5.80601897e-01
  -2.64149468e-01 -1.34868667e+00  1.35008988e+00  1.48209109e+00
   7.49654200e-01  4.07641237e-01 -4.52679794e-01  4.14155357e-01
   1.85464553e-01  6.08536248e-01 -5.49043686e-01 -3.58483724e-01
   7.63886878e-01  7.42893376e-01  9.16628570e-01 -3.69624573e-01
   7.89278901e-01 -2.12166771e+00]
 [ 1.69923943e+00 -1.28138059e-01 -3.61841776e-01  1.04866707e+00
   7.23672971e-01 -3.32545998e-01 -1.98399562e-02 -1.13620425e+00
  -3.62690717e-01  3.79825481e-01  1.60735205e+00  2.93796888e-01
  -4.96222731e-01 -7.03531595e-01  1.31590210e+00 -1.52019416e-01
   5.13076914e-02 -1.42408539e-03 -1.41953945e+00 -2.34821738e-01
   1.30684059e-01  9.29353117e-01  1.33213674e+00 -1.49363701e+00
  -1.48836472e+00  5.09800844e-02 -7.38332499e-01  3.59033962e+00
   1.01492217e-01 -3.54727021e-01]
 [ 2.59971559e+00  1.05092497e+00 -1.14857036e+00 -1.49916085e+00
  -1.05406507e+00 -2.50697028e+00  4.87187338e-01 -8.65344879e-02
   2.57418523e+00 -4.06079767e-01 -4.72875339e-01 -1.30740292e+00
  -1.57964672e+00  1.62018811e-01 -4.02959044e-01 -2.52835492e-02
   1.14146730e+00 -9.86324357e-01  3.90849930e-01  1.14655911e-02
  -1.73021887e-01 -3.08681917e-01  6.89934543e-01 -2.88818490e-01
  -1.27191745e+00  2.29595944e-01 -1.24884238e+00 -8.74013475e-01
   5.22064503e-01 -1.71001677e-01]]
